<?xml version="1.0"?>
<opencv_storage>
<stage16>
  <maxWeakCount>7</maxWeakCount>
  <stageThreshold>-1.4028105735778809e+00</stageThreshold>
  <weakClassifiers>
    <_>
      <internalNodes>
        0 -1 464955 -7.9890649067237973e-04</internalNodes>
      <leafValues>
        8.2142859697341919e-01 -6.1696660518646240e-01</leafValues></_>
    <_>
      <internalNodes>
        0 -1 9328 -2.7386566624045372e-02</internalNodes>
      <leafValues>
        4.4387564063072205e-01 -4.8365530371665955e-01</leafValues></_>
    <_>
      <internalNodes>
        0 -1 303562 1.7863053362816572e-03</internalNodes>
      <leafValues>
        -3.0416667461395264e-01 5.5186957120895386e-01</leafValues></_>
    <_>
      <internalNodes>
        0 -1 245703 5.7944282889366150e-04</internalNodes>
      <leafValues>
        2.4347373843193054e-01 -8.8750326633453369e-01</leafValues></_>
    <_>
      <internalNodes>
        0 -1 61705 1.2059012660756707e-03</internalNodes>
      <leafValues>
        1.3466194272041321e-01 -1.</leafValues></_>
    <_>
      <internalNodes>
        0 -1 479765 -4.3549996917136014e-04</internalNodes>
      <leafValues>
        4.9205246567726135e-01 -3.8855150341987610e-01</leafValues></_>
    <_>
      <internalNodes>
        0 -1 17793 -1.5207345131784678e-03</internalNodes>
      <leafValues>
        -9.1513711214065552e-01 1.6375540196895599e-01</leafValues></_></weakClassifiers></stage16>
</opencv_storage>
