<?xml version="1.0"?>
<opencv_storage>
<stage2>
  <maxWeakCount>5</maxWeakCount>
  <stageThreshold>-9.0893203020095825e-01</stageThreshold>
  <weakClassifiers>
    <_>
      <internalNodes>
        0 -1 303562 3.6829477176070213e-03</internalNodes>
      <leafValues>
        -6.7978292703628540e-01 6.9072163105010986e-01</leafValues></_>
    <_>
      <internalNodes>
        0 -1 11102 -7.6687457039952278e-03</internalNodes>
      <leafValues>
        2.2887946665287018e-01 -8.7568444013595581e-01</leafValues></_>
    <_>
      <internalNodes>
        0 -1 55 -5.7265032082796097e-03</internalNodes>
      <leafValues>
        -9.8773396015167236e-01 2.1632175147533417e-01</leafValues></_>
    <_>
      <internalNodes>
        0 -1 113826 -1.2921791523694992e-02</internalNodes>
      <leafValues>
        -8.5974651575088501e-01 3.0501711368560791e-01</leafValues></_>
    <_>
      <internalNodes>
        0 -1 62743 9.4555914402008057e-03</internalNodes>
      <leafValues>
        2.0964390039443970e-01 -9.7936743497848511e-01</leafValues></_></weakClassifiers></stage2>
</opencv_storage>
