<?xml version="1.0"?>
<opencv_storage>
<stage20>
  <maxWeakCount>5</maxWeakCount>
  <stageThreshold>-7.6135653257369995e-01</stageThreshold>
  <weakClassifiers>
    <_>
      <internalNodes>
        0 -1 55867 2.2297331597656012e-03</internalNodes>
      <leafValues>
        -7.4896550178527832e-01 1.</leafValues></_>
    <_>
      <internalNodes>
        0 -1 12556 -2.4317277595400810e-02</internalNodes>
      <leafValues>
        6.8478894233703613e-01 -6.8023127317428589e-01</leafValues></_>
    <_>
      <internalNodes>
        0 -1 305608 -7.6154159614816308e-05</internalNodes>
      <leafValues>
        7.9927265644073486e-01 -5.0778943300247192e-01</leafValues></_>
    <_>
      <internalNodes>
        0 -1 334788 -1.9815466366708279e-03</internalNodes>
      <leafValues>
        -8.6134248971939087e-01 5.2507799863815308e-01</leafValues></_>
    <_>
      <internalNodes>
        0 -1 176159 -1.2525815982371569e-03</internalNodes>
      <leafValues>
        -5.2502608299255371e-01 7.2991007566452026e-01</leafValues></_></weakClassifiers></stage20>
</opencv_storage>
