<?xml version="1.0"?>
<opencv_storage>
<stage19>
  <maxWeakCount>6</maxWeakCount>
  <stageThreshold>-1.4258238077163696e+00</stageThreshold>
  <weakClassifiers>
    <_>
      <internalNodes>
        0 -1 375855 -4.7064623795449734e-03</internalNodes>
      <leafValues>
        1. -6.4248704910278320e-01</leafValues></_>
    <_>
      <internalNodes>
        0 -1 70254 -7.4355928227305412e-03</internalNodes>
      <leafValues>
        4.4218602776527405e-01 -5.8959275484085083e-01</leafValues></_>
    <_>
      <internalNodes>
        0 -1 90876 2.9174815863370895e-02</internalNodes>
      <leafValues>
        3.2484906911849976e-01 -8.5262030363082886e-01</leafValues></_>
    <_>
      <internalNodes>
        0 -1 402213 -8.3916578441858292e-03</internalNodes>
      <leafValues>
        8.4147697687149048e-01 -3.2102593779563904e-01</leafValues></_>
    <_>
      <internalNodes>
        0 -1 504221 6.7505978222470731e-05</internalNodes>
      <leafValues>
        -3.9850881695747375e-01 6.9153451919555664e-01</leafValues></_>
    <_>
      <internalNodes>
        0 -1 1804 1.8699001520872116e-02</internalNodes>
      <leafValues>
        2.8836774826049805e-01 -9.9004757404327393e-01</leafValues></_></weakClassifiers></stage19>
</opencv_storage>
