<?xml version="1.0"?>
<opencv_storage>
<stage4>
  <maxWeakCount>5</maxWeakCount>
  <stageThreshold>-1.3192086219787598e+00</stageThreshold>
  <weakClassifiers>
    <_>
      <internalNodes>
        0 -1 391216 5.0470754504203796e-03</internalNodes>
      <leafValues>
        -6.8827587366104126e-01 5.9633028507232666e-01</leafValues></_>
    <_>
      <internalNodes>
        0 -1 417 -1.1698659509420395e-02</internalNodes>
      <leafValues>
        3.3423316478729248e-01 -7.0324295759201050e-01</leafValues></_>
    <_>
      <internalNodes>
        0 -1 137036 -9.4003351405262947e-03</internalNodes>
      <leafValues>
        6.3633406162261963e-01 -4.1890341043472290e-01</leafValues></_>
    <_>
      <internalNodes>
        0 -1 101589 -1.2783798575401306e-01</internalNodes>
      <leafValues>
        -1. 2.6077780127525330e-01</leafValues></_>
    <_>
      <internalNodes>
        0 -1 1207 1.4867049455642700e-01</internalNodes>
      <leafValues>
        2.3043580353260040e-01 -9.8708635568618774e-01</leafValues></_></weakClassifiers></stage4>
</opencv_storage>
